//Numpy array shape [84]
//Min -0.039603613317
//Max 0.070062428713
//Number of zeros 0

#ifndef B11_H_
#define B11_H_

#ifndef __SYNTHESIS__
fc2_bias_t b11[84];
#else
fc2_bias_t b11[84] = {-0.0396036, -0.0176995, 0.0480303, -0.0039153, 0.0489582, 0.0050244, 0.0357579, -0.0108768, 0.0081477, 0.0149986, 0.0269364, 0.0640222, 0.0019088, 0.0171497, 0.0144273, -0.0052928, -0.0176515, 0.0260607, -0.0046692, 0.0580527, 0.0022331, 0.0700624, 0.0105038, -0.0104183, 0.0375964, 0.0005416, -0.0133065, 0.0298559, 0.0078934, 0.0403488, 0.0613896, 0.0027990, 0.0080933, 0.0250559, -0.0325487, 0.0176827, -0.0091926, 0.0223610, -0.0107930, 0.0216653, 0.0513402, -0.0200106, 0.0078481, -0.0293198, -0.0195658, -0.0247350, 0.0278802, 0.0222080, -0.0008552, 0.0315857, -0.0160378, 0.0416740, -0.0024962, 0.0115269, -0.0248936, 0.0550711, 0.0417568, 0.0468427, -0.0126792, -0.0276747, -0.0285050, 0.0211411, 0.0529195, 0.0226222, -0.0060655, 0.0312069, 0.0504729, 0.0617101, -0.0254231, -0.0080326, 0.0259848, -0.0088091, -0.0352550, 0.0277782, 0.0425303, 0.0275941, 0.0638666, 0.0096599, -0.0071769, -0.0293495, 0.0249077, 0.0696643, -0.0348167, 0.0198647};

#endif

#endif
