//Numpy array shape [5, 5, 1, 6]
//Min -0.465875893831
//Max 0.345940977335
//Number of zeros 0

#ifndef W2_H_
#define W2_H_

#ifndef __SYNTHESIS__
conv1_weight_t w2[150];
#else
conv1_weight_t w2[150] = {-0.0883341, -0.3824547, -0.3979339, -0.4658759, -0.2291625, 0.1568697, -0.1170030, -0.1486920, -0.0217277, -0.0772426, 0.3159927, 0.1721766, 0.0769823, 0.0161636, 0.2007747, 0.0772605, 0.2124044, 0.2027374, 0.2937505, 0.2087027, -0.0339830, 0.2878210, 0.3050256, 0.2505264, -0.0139452, -0.3024016, -0.1494543, 0.1255245, -0.0771692, 0.0294825, -0.3669786, -0.0632994, 0.1282219, 0.1549013, 0.1508476, -0.2721473, 0.0568525, 0.3123472, 0.2685311, 0.2240665, 0.0035315, 0.0414036, 0.2902225, 0.3057930, 0.0372254, -0.1921552, 0.2756970, 0.0199681, 0.2277313, -0.0094654, 0.0338434, 0.2783306, 0.2073488, -0.0667894, 0.0313418, 0.2230308, 0.3120219, 0.2883257, 0.0800286, 0.1643374, 0.1882266, 0.1055500, -0.0415693, 0.0734356, 0.0143946, 0.1358226, 0.0756233, -0.0541610, 0.2046276, 0.1402452, 0.1085494, -0.1791870, -0.1626665, 0.0986832, -0.1743876, 0.1224826, 0.2285428, 0.1761856, 0.1954069, 0.2597333, 0.1953139, 0.3459410, 0.3417268, 0.0101192, 0.0614140, 0.0217111, 0.0181970, 0.0102875, 0.1942788, 0.2502944, 0.0070261, -0.3004884, -0.2729533, -0.1404872, -0.0883390, -0.4121225, -0.4395764, -0.2322951, -0.2491374, -0.1034234, -0.0449104, 0.2017471, 0.1092562, -0.0711926, -0.0158868, -0.0098930, 0.2800540, -0.0096743, -0.1086063, -0.2840734, 0.0138529, 0.1253623, -0.0457247, -0.1481624, 0.0032763, -0.0052054, 0.2861538, -0.0552357, -0.0156193, -0.0013635, 0.2063973, 0.2805383, -0.0789582, 0.0915578, 0.0169978, -0.1250898, 0.1489409, -0.1415245, 0.1875530, -0.2236931, -0.0688403, -0.1178298, 0.0814147, 0.2006378, -0.1088172, 0.1288949, 0.0258099, 0.3351348, 0.2856334, 0.1962443, -0.1770406, -0.0125959, 0.3199571, 0.0537188, 0.2762676, -0.1783284, -0.1727460, 0.0924849, 0.1456492, -0.1168830};

#endif

#endif
